14 100
XLE -0.017441917 0.027174784 0.024063144 0.02779882 -0.0048160003 -0.030198427 0.028084535 0.052125793 -0.048497796 -0.043789633 0.032781612 -0.019056706 -0.0060808524 0.000561785 0.021090537 -0.008663911 0.037439924 0.0055847648 -0.04022905 -0.07980808 0.0006841748 -0.0022710697 0.081456386 -0.015932724 -0.0022277113 0.007889556 -0.029352421 0.02705973 -0.021794552 0.01758402 0.02063207 -0.015839338 0.02596748 -0.016147314 -0.007997807 0.017384259 0.012695582 -0.004806576 -0.019555563 -0.016081069 0.0022698545 -0.0018500166 -0.032169487 0.008048817 0.0054190336 -0.009488166 -0.004776375 0.0049222647 -0.004609022 0.023406513 0.0016502255 -0.02826948 -0.017029243 -0.008745841 -0.021738617 -0.023515292 0.0016207026 -0.014122036 0.001103233 0.0044079493 -0.014754121 -0.010951124 0.05106655 -0.01331984 -0.037327673 0.03939332 0.009281209 0.03618328 -0.050539512 -0.0045062886 0.0073030363 0.056528986 0.013647439 0.030102734 0.010822622 0.011174144 0.008465577 0.0039246054 -0.020886237 -0.027295979 -0.018954469 0.0016106 0.013091132 0.031357545 -0.012777192 -0.027921608 0.031813763 -0.022728266 0.009051612 0.013963052 0.0080266185 0.0096471235 0.0014615918 -0.007487914 0.06520525 0.00967734 0.02271202 -0.03243317 0.014941513 0.0022171733
VWO -0.026547346 0.033199355 0.02655525 0.026962124 0.012537975 -0.031524807 0.025228465 0.053685334 -0.05088031 -0.050414216 0.028012406 -0.027737144 -0.0068581053 0.0006240086 0.032004133 -0.00039756446 0.045123376 0.012574629 -0.039160475 -0.07883058 -0.0049012923 -0.012341121 0.09087489 -0.028692544 -0.0028820683 0.015559965 -0.0366401 0.028243821 -0.017607458 0.030296402 0.040575158 -0.020504182 0.017781762 -0.01500324 -0.0028140766 0.023875905 0.011476467 0.006852637 -0.01269779 -0.0036435 0.020774296 -0.0142076425 -0.034643687 0.013390418 0.0030402066 -0.0024193262 0.008965944 -0.007076015 -0.009195905 0.017671034 0.018321432 -0.045673143 -0.014492409 -0.0075175436 -0.034279913 -0.012956991 0.0051691 -0.0014627398 0.0047169304 0.0022266903 -0.023276092 -0.009575097 0.05646835 -0.010936054 -0.036518697 0.046373848 0.018567683 0.02834197 -0.04587385 -0.000870083 -0.0016665291 0.044919614 0.022110702 0.049731735 0.0062836064 0.0047688223 -0.0053831604 0.0024500457 -0.015431585 -0.024281345 -0.029527167 0.0026458122 0.012826027 0.02103657 -0.006538307 -0.034859505 0.02876219 -0.0299421 0.016270727 0.003447908 0.007890945 0.008541497 -0.00011388617 -0.01606313 0.058799244 0.0077070803 0.040261507 -0.030258344 0.0063485294 -7.5586075e-05
DBC -0.016798865 0.029590381 0.011869368 0.016449824 0.012199053 -0.015116849 0.017174851 0.044926677 -0.050543617 -0.03324201 0.02016327 -0.02035726 0.008005502 -0.0055830274 0.033335783 -0.012777479 0.039387595 0.014406145 -0.039640013 -0.074036725 -0.0136345485 -0.011794822 0.06951295 -0.0244108 -0.00046874234 0.0068293177 -0.019566244 0.026153855 -0.020391159 0.025412273 0.03288648 -0.021858295 0.008762151 -0.010848335 -0.014178187 0.017213048 0.0037372203 0.004281881 -0.017978651 -0.011781295 0.00594639 -0.004512994 -0.023510285 0.019103643 0.009128173 -0.005031635 0.0043724705 -0.0076159653 -0.014068317 0.012735494 0.011154178 -0.034704532 -0.020276256 -0.017767696 -0.038738474 -0.024703158 -0.0049548806 -0.011233358 -0.0012980923 -0.008365473 -0.008882245 -0.01477631 0.06313209 -0.0034637493 -0.042425703 0.045379527 0.017679296 0.035608355 -0.053796045 -0.0011340682 0.006201085 0.05237494 0.018879592 0.040586162 0.003080876 0.01894127 0.0108988555 0.008108522 -0.021141302 -0.017937593 -0.016634332 -0.009541164 -0.00046099388 0.024318093 -0.0058721164 -0.03474997 0.020887658 -0.024553446 0.02024241 0.0068553793 0.0016971244 0.015149907 0.0075846473 -0.011759466 0.062442914 0.009868391 0.03765339 -0.024210908 0.022376768 -0.011132796
VEA -0.029055329 0.042279862 0.022770049 0.020834269 0.010475234 -0.03206529 0.028662104 0.059609387 -0.046800792 -0.056256976 0.04018808 -0.016651565 0.0021633622 -0.013743273 0.040506814 -0.010411212 0.051432226 0.0004756899 -0.046950534 -0.079271406 -0.0063349972 -0.011081174 0.10055599 -0.010723645 -0.019907486 0.01670793 -0.028848547 0.030353867 -0.015555393 0.026914766 0.034990888 -0.021728065 0.013080961 -0.012662748 -0.0030839087 0.03191625 0.014344414 -0.00460678 -0.033518136 -0.003893743 0.017540492 -0.002748159 -0.022039741 0.012716645 0.013903617 -0.008825466 0.00659235 -0.008448876 -0.014898789 0.01495195 0.016390882 -0.039658528 -0.025754321 -0.02194692 -0.042961743 -0.023694802 -0.0020435904 0.0006810574 0.011723571 -0.010055561 -0.016010238 -0.008774395 0.07554343 -0.007426733 -0.039646953 0.039139688 0.012041338 0.045715697 -0.06078531 -0.017735261 0.008213431 0.054934416 0.016897881 0.05780657 0.0056862724 0.008369392 -0.0036135465 0.012658621 -0.028126638 -0.020692958 -0.02769696 0.0046518412 0.013664866 0.033031996 -0.010175147 -0.038968444 0.040795423 -0.016696826 0.012792033 -0.00097152253 0.00017948475 0.010512718 -0.0026361775 -0.012041785 0.07753709 0.004873807 0.045050446 -0.03800387 0.0149606895 -0.01035878
XLB -0.028457247 0.03505709 0.017546525 0.02136857 0.010045133 -0.023291508 0.028632632 0.05818157 -0.06041872 -0.044389427 0.026100798 -0.01853552 -0.0100700585 -0.005423599 0.028151426 -0.0129385125 0.042043224 0.0124158785 -0.034188263 -0.09729611 -0.008151149 -0.018289756 0.10455782 -0.0124275135 -0.013450231 0.016296236 -0.0368227 0.03370445 -0.027399188 0.028949196 0.043521382 -0.015996328 0.023028143 -0.019908108 0.0008645031 0.017781107 0.0015004461 0.004691506 -0.0263786 -0.013407106 0.017299043 -0.015654242 -0.040417936 0.025885595 0.012796291 -0.01963831 0.007291755 -0.006957363 -0.008224997 0.011050664 0.01695798 -0.038194884 -0.0068878233 -0.017348945 -0.040358774 -0.03305305 -0.015244457 -0.019251652 0.0058103623 -0.012885501 -0.013159051 -0.021745542 0.07487816 -0.0055445926 -0.051200867 0.047265515 0.023307743 0.048058614 -0.066782735 0.00096622546 -0.0032845067 0.06939146 0.01607078 0.054264717 0.011628005 0.02097202 0.00021465827 0.014058106 -0.016028397 -0.03337388 -0.031755835 -0.009486125 0.012423566 0.02992387 -0.016958669 -0.046985105 0.042016897 -0.021606496 0.0063395547 0.004647639 0.011476967 0.0073500536 0.003635471 -0.01421021 0.0740147 -0.0026875457 0.048769113 -0.026991569 0.020058637 -0.0019332623
XLF -0.028362986 0.033666555 0.021299332 0.012469509 -0.0043405956 -0.028691439 0.029417602 0.054398417 -0.05728266 -0.053853694 0.024872677 -0.022678407 -0.009233008 -0.016737208 0.02764168 -0.016259803 0.034387838 -0.0005248267 -0.039362427 -0.084265634 -0.016662672 -0.009505801 0.09560254 -0.011678374 -0.01738279 0.009584673 -0.030450031 0.015511845 -0.01502416 0.031694725 0.038528003 -0.02604236 0.015105166 -0.018239433 -0.006332527 0.031752206 0.011296539 0.006326361 -0.018101603 -0.01651981 0.023134219 -0.015282599 -0.034737192 0.01254567 0.0053105033 -0.0143397115 0.0029385872 0.00200476 -0.01200857 0.015157211 0.014249057 -0.046525095 -0.0073002875 -0.0024841123 -0.044732213 -0.020032912 0.006297853 -0.016228873 -0.0012361096 -0.013413701 -0.007273742 -0.013796145 0.073801905 -0.014670573 -0.038397506 0.045746922 0.012776788 0.038050435 -0.06330954 -0.01721333 0.004524621 0.06284241 0.025321089 0.05173708 0.0070422785 0.02098259 -0.008120138 0.008931976 -0.021046389 -0.017851476 -0.013772422 -0.0077548167 0.014763122 0.019271294 -0.00926928 -0.043350782 0.024950767 -0.011643132 0.012417598 0.011432663 0.016778849 0.019965483 -0.010533429 -0.011840766 0.07481598 0.010117808 0.035472147 -0.038327035 0.019355433 -0.0113924
XLI -0.010233462 0.024565414 0.019690694 0.021184256 0.004991832 -0.023793606 0.029400976 0.0474405 -0.05074359 -0.045216244 0.033572678 -0.017849669 -0.0022131016 0.0027848734 0.02335173 -0.00821923 0.047229 0.012005871 -0.03277719 -0.086429454 -0.00622536 -0.010438645 0.09109401 -0.016940448 -0.0077362796 0.015182316 -0.033236228 0.018815782 -0.015559758 0.021687735 0.037421618 -0.0068713124 0.01768649 -0.006166169 -0.012381252 0.022396691 -0.0024670528 -0.007620387 -0.027584383 -0.021261854 0.020167273 -0.012990082 -0.017575577 0.006811806 0.009195199 -0.0009267065 -0.004513973 -0.015507294 -0.0151208285 0.012780038 0.01056733 -0.04445931 -0.02294585 -0.0080811875 -0.041049775 -0.030583011 -0.006535401 -0.016920833 -0.0013276086 -0.013798322 -0.01526426 -0.017304558 0.06760106 -0.0041289357 -0.043347627 0.046539936 0.00518345 0.02858734 -0.05970702 -0.01145349 0.00032961118 0.05981678 0.01342896 0.047860518 0.014051195 0.004362928 0.0063778847 0.0108546475 -0.022964196 -0.013614901 -0.013895728 -0.0077921706 0.0015612014 0.029978147 -0.009910735 -0.038760245 0.037850857 -0.02484088 0.0067468085 0.0077822404 0.0041825105 0.01072807 -0.005078249 -0.008781278 0.060012467 0.0054719006 0.043587048 -0.03291787 0.014406595 0.0011387094
XLY -0.013585811 0.02967974 0.03357183 0.032197703 0.0014613478 -0.029043559 0.03196701 0.0515886 -0.061206467 -0.058030352 0.03170706 -0.02300941 0.0023534275 -0.010075686 0.032872494 -0.006255432 0.049652148 0.0062355455 -0.0469799 -0.09999856 -0.008433559 -0.0025520788 0.097500384 -0.030166598 -0.018703021 0.021656126 -0.040636346 0.033985298 -0.025329333 0.036468133 0.029550737 -0.015318396 0.020238915 -0.018074939 -0.010780295 0.023201333 -0.000114251 -3.1016247e-05 -0.032779507 -0.0117651755 0.02454922 -0.010997844 -0.03114147 0.019495444 0.015603039 -0.018096436 -0.0032782538 -0.009366236 -0.0031700307 0.019042846 0.0039513726 -0.04355084 -0.0072089653 -0.020267295 -0.044061806 -0.015421533 -0.0132897245 -0.005734171 0.0070210593 0.00059469923 -0.008918752 -0.017608501 0.06723053 0.0021185668 -0.044135343 0.053689986 0.0036359131 0.048810188 -0.062873416 -0.014707474 0.005593493 0.061601743 0.023989394 0.047923543 0.004207672 0.015801579 0.010273878 0.000657889 -0.02081443 -0.03187615 -0.03036635 -0.0021506243 0.0010130804 0.03467231 -0.0078641595 -0.040683158 0.038632303 -0.013223524 0.023870777 0.0071823383 0.010205713 0.008064807 -0.0103849545 -0.003748145 0.06929228 0.0051380787 0.039489504 -0.036836144 0.022541199 -0.009228036
IAU -0.028050253 0.03943914 0.02560337 0.030633554 0.011877422 -0.023149036 0.034001783 0.04417123 -0.055787392 -0.04086502 0.03274263 -0.025089497 0.008171073 -0.010249249 0.039094362 -0.006746647 0.032985546 0.0032744452 -0.043263666 -0.082868226 -0.0061707776 0.0011237148 0.09374366 -0.025513537 -0.006363778 0.015320564 -0.034988113 0.015139344 -0.015025726 0.015987843 0.03776927 -0.022120439 0.024480619 0.00025220535 -0.006456045 0.025907815 0.0027781501 0.0082894685 -0.018920027 -0.02204124 0.010505889 -0.0038801257 -0.026019428 0.01320393 0.0051478287 -0.012379894 0.0038704374 -0.0016083305 -0.015149144 0.012233702 0.010832601 -0.036479052 -0.015019494 -0.015985157 -0.029711591 -0.02401654 -0.0018792032 -0.0074333274 0.011567651 -0.012346575 -0.021863017 -0.017320132 0.071815014 -0.007353035 -0.050266877 0.041167542 0.007021212 0.040882003 -0.06368246 -0.0046208333 -0.0072862566 0.055927973 0.022551704 0.051814612 -5.7614998e-05 0.005999029 -0.00525814 -0.0024631019 -0.030290006 -0.023256864 -0.02148048 -0.008312744 0.015176831 0.029266981 -0.002173658 -0.031846195 0.030319491 -0.027731672 0.011609176 0.0123608615 0.0020603586 0.0114431 0.0006719937 -0.009927959 0.07242099 0.013074154 0.038426895 -0.021349879 0.021704646 -0.01002686
VTI -0.02603773 0.025921838 0.015520463 0.0307496 0.0041350857 -0.034516104 0.0220555 0.058439657 -0.05570871 -0.05267674 0.032384735 -0.024540802 -0.0033782888 -0.0063995593 0.028639609 -0.00017525641 0.04640786 -0.004063942 -0.032295745 -0.09313306 -0.007672056 -0.004714187 0.08626915 -0.022158792 -0.00231441 0.009991266 -0.042581126 0.036040947 -0.019912368 0.021931035 0.04299127 -0.013727848 0.024418376 -0.0011799969 -0.015662737 0.028419925 0.0071769906 0.0052666576 -0.022395872 -0.0091442345 0.018978411 -0.0017961045 -0.032053616 0.010936187 0.0060784374 -0.009248269 0.00073797104 -0.0001818265 -0.008049345 0.02507261 0.015012948 -0.031975172 -0.017313825 -0.004356423 -0.033249315 -0.032073244 -0.008362287 -0.011524505 0.011307074 -0.0070326757 -0.01952315 -0.0064374916 0.077733256 -0.008134911 -0.049729757 0.04044777 0.008013796 0.02783165 -0.05768756 -0.012244028 0.005079168 0.06512575 0.014413621 0.038408842 0.00930103 0.0063519143 0.0043056677 0.0015992214 -0.015553665 -0.021983987 -0.019095793 -0.004248334 0.0075394856 0.038159847 -0.007753324 -0.04259792 0.02400798 -0.020915637 0.021169612 0.014266501 -0.0014404748 0.020067079 0.0023955149 -0.0022606065 0.078079395 -0.0018653468 0.030556744 -0.024534097 0.027416827 -0.0014978377
XLU -0.013686415 0.03118644 0.031469904 0.013579759 -0.0022317895 -0.035060454 0.022430414 0.058727834 -0.057611994 -0.058108337 0.039625973 -0.025589636 0.006475056 -0.012256967 0.03573525 -0.0033323637 0.045631424 0.0030343467 -0.03589289 -0.09617359 -0.011091246 -0.01187472 0.09988456 -0.024029829 -0.017262014 0.018872974 -0.0363542 0.02356327 -0.011078509 0.030967789 0.03115658 -0.016988149 0.029773293 -0.0029160823 -0.00076425617 0.028164674 0.007358614 -0.0005868448 -0.030969862 -0.0140386345 0.013576017 -0.009061594 -0.035517726 0.023236958 0.00011404827 -0.019174473 0.00095866795 -0.007902774 -0.019507675 0.018293371 0.0070829443 -0.04184858 -0.023158617 -0.010133073 -0.03422939 -0.024105296 -0.010155705 -0.01096266 0.013430065 -0.0023200207 -0.025554758 -0.017668987 0.071282394 -0.004227039 -0.054410093 0.050404668 0.004055498 0.030286096 -0.055898774 -0.011741133 0.005923601 0.069117755 0.014859285 0.057897385 0.009902809 0.023059206 0.007528401 -0.0035918201 -0.025630731 -0.01655523 -0.017271934 0.0071976064 0.016133754 0.038892075 -0.01902576 -0.03297053 0.027203636 -0.01857404 0.02117455 0.013175917 0.015411182 0.013068251 -0.003416467 -0.0036523913 0.06304986 0.0050394647 0.049350012 -0.036425438 0.021744052 -0.012905033
XLV -0.007318621 0.036123898 0.021312142 0.02481195 0.006289111 -0.030508325 0.02128812 0.05187 -0.050234903 -0.04598536 0.031989556 -0.015566608 -0.0032737637 -0.00886427 0.03311187 -0.012877687 0.033493306 -0.0014099064 -0.03730455 -0.08328746 -0.011282423 -0.016287167 0.08020987 -0.026022412 -0.018951563 0.0040895874 -0.03708472 0.029303191 -0.011240278 0.02277987 0.026489051 -0.02229419 0.018279314 -0.008142587 -0.0059291595 0.020723954 0.004804273 0.0004868988 -0.029317446 -0.01824408 0.003886966 -0.008314805 -0.022383476 0.020609759 0.0037462024 -0.012229137 0.012338119 -0.005541378 -0.012834105 0.023476603 0.012873171 -0.03972896 -0.0074293334 -0.005893142 -0.038742006 -0.021191442 -0.0031931524 -0.0022758683 0.0035505465 -0.008215916 -0.01255005 -0.011465902 0.059694476 -0.007995393 -0.044414174 0.04625894 0.018033361 0.040400647 -0.059317324 -0.0043782177 -0.0016895353 0.060988106 0.018271754 0.045994416 0.009540011 0.017618885 -0.0039672735 0.0127925975 -0.021917827 -0.023943618 -0.02111593 0.0084841475 0.00087804615 0.024294192 -0.00079978106 -0.03135195 0.02142665 -0.025525665 0.021432789 0.014076218 0.01131068 0.0063908733 -0.011141267 -0.004094337 0.06542897 -0.001176671 0.026063617 -0.029363038 0.0101612145 -0.0063099083
XLP -0.02660994 0.032606315 0.0357789 0.016465023 0.011287626 -0.026635418 0.028268045 0.06981281 -0.050760243 -0.06161124 0.02930131 -0.031626124 -0.009684916 -0.011996706 0.031404298 -0.017857267 0.049913574 0.009656499 -0.038261935 -0.10137882 -0.013817505 -0.008645057 0.105045035 -0.014768486 -0.011040039 0.02368622 -0.048197255 0.03879993 -0.022127137 0.039222624 0.03200463 -0.018985631 0.024262004 -0.011875541 -0.013383282 0.01754121 -0.0011304364 -0.0062889345 -0.025451675 -0.014943943 0.014420323 -0.0014893574 -0.03525071 0.016283872 -0.001523704 -0.023384966 0.013167398 -0.012513714 -0.020211145 0.025058959 0.0207299 -0.052354574 -0.0182341 -0.02036208 -0.040473815 -0.031624407 -0.007927538 -0.007994993 0.016048899 0.0001419521 -0.028725712 -0.021345902 0.086520284 -0.005352668 -0.05494035 0.052023284 0.024228001 0.041855063 -0.076619364 -0.007902987 0.009492474 0.07397532 0.024983434 0.049264412 0.008513331 0.015029776 0.006746111 -0.0019700327 -0.03407708 -0.025591642 -0.03422154 0.0039175134 0.010735552 0.045305498 -0.015616371 -0.042204805 0.044201203 -0.029145254 0.012140454 0.011353572 0.011098656 0.011258657 0.0049593044 -0.018787868 0.08184729 0.007005117 0.05413485 -0.029018736 0.027524233 0.0020637847
XLK -0.033232752 0.04659565 0.017725123 0.022304406 0.0011524144 -0.036486145 0.020653233 0.051054657 -0.06324165 -0.05590583 0.029110203 -0.01755057 -0.011946242 -0.0141315805 0.045229357 -0.0023387705 0.055009853 0.010374489 -0.042884987 -0.101440854 -0.0029373835 -0.0071654753 0.10909568 -0.015571001 -0.003378179 0.024334744 -0.048738 0.022468112 -0.018006993 0.036132548 0.045449134 -0.014802518 0.030139962 -0.017263457 -0.0010234732 0.021872226 -0.0028579608 0.010809317 -0.02523544 -0.017786812 0.013096882 -0.012929542 -0.026852425 0.021494368 0.0044006812 -0.020479046 0.0006395558 -0.006591386 -0.006954104 0.016627684 0.013437303 -0.043352213 -0.025238387 -0.011281836 -0.042366944 -0.02312643 0.0011133245 -0.010997084 0.003950478 0.0015987317 -0.012922981 -0.0081408555 0.08006827 0.0013069337 -0.0409311 0.048703305 0.023306746 0.046500105 -0.059375446 -0.010746475 0.0010316847 0.060926564 0.011680082 0.056217045 0.017805904 0.023857038 -0.00041877036 0.012526851 -0.021210462 -0.029569827 -0.022696607 -0.006849872 0.019150076 0.03915954 -0.0065009017 -0.03607224 0.04387415 -0.016703598 0.015785696 0.0023603002 0.017191907 0.020520914 -0.0004207217 -0.012049842 0.06987508 0.0015794622 0.051998492 -0.037570816 0.012917328 0.0045034704
